<?xml version="1.0"?>
<opencv_storage>
<stage4>
  <maxWeakCount>10</maxWeakCount>
  <stageThreshold>-1.2684586048126221e+00</stageThreshold>
  <weakClassifiers>
    <_>
      <internalNodes>
        0 -1 5102789 -1.0285507142543793e-01</internalNodes>
      <leafValues>
        8.8957053422927856e-01 -1.8987341225147247e-01</leafValues></_>
    <_>
      <internalNodes>
        0 -1 2716930 2.2014028218109161e-06</internalNodes>
      <leafValues>
        -3.4963834285736084e-01 6.3608986139297485e-01</leafValues></_>
    <_>
      <internalNodes>
        0 -1 7232240 -2.0523370949376840e-06</internalNodes>
      <leafValues>
        6.0708111524581909e-01 -3.4972646832466125e-01</leafValues></_>
    <_>
      <internalNodes>
        0 -1 2334541 -4.6200987696647644e-01</internalNodes>
      <leafValues>
        7.5158178806304932e-01 -3.2600095868110657e-01</leafValues></_>
    <_>
      <internalNodes>
        0 -1 5357927 -1.7821550500229932e-05</internalNodes>
      <leafValues>
        5.0900369882583618e-01 -4.5304894447326660e-01</leafValues></_>
    <_>
      <internalNodes>
        0 -1 7763498 2.0887595019303262e-04</internalNodes>
      <leafValues>
        2.8420841693878174e-01 -7.4382472038269043e-01</leafValues></_>
    <_>
      <internalNodes>
        0 -1 3016895 4.6431960072368383e-06</internalNodes>
      <leafValues>
        -4.6873709559440613e-01 4.2582371830940247e-01</leafValues></_>
    <_>
      <internalNodes>
        0 -1 2617809 -1.9376357158762403e-06</internalNodes>
      <leafValues>
        6.0677993297576904e-01 -3.2882130146026611e-01</leafValues></_>
    <_>
      <internalNodes>
        0 -1 4628415 -2.0925804972648621e-02</internalNodes>
      <leafValues>
        4.6534222364425659e-01 -4.3418249487876892e-01</leafValues></_>
    <_>
      <internalNodes>
        0 -1 5163410 2.1369755813793745e-06</internalNodes>
      <leafValues>
        -4.7284537553787231e-01 4.4783720374107361e-01</leafValues></_></weakClassifiers></stage4>
</opencv_storage>
