<?xml version="1.0"?>
<opencv_storage>
<stage2>
  <maxWeakCount>7</maxWeakCount>
  <stageThreshold>-9.9319761991500854e-01</stageThreshold>
  <weakClassifiers>
    <_>
      <internalNodes>
        0 -1 4639860 -1.6170617938041687e-01</internalNodes>
      <leafValues>
        8.6480188369750977e-01 -4.6091642975807190e-01</leafValues></_>
    <_>
      <internalNodes>
        0 -1 2266988 -6.5868617966771126e-03</internalNodes>
      <leafValues>
        4.7558122873306274e-01 -7.4439895153045654e-01</leafValues></_>
    <_>
      <internalNodes>
        0 -1 4489767 3.1650610268115997e-02</internalNodes>
      <leafValues>
        -3.7115928530693054e-01 7.4677199125289917e-01</leafValues></_>
    <_>
      <internalNodes>
        0 -1 5464793 -2.1188288883422501e-06</internalNodes>
      <leafValues>
        6.4316964149475098e-01 -4.4459566473960876e-01</leafValues></_>
    <_>
      <internalNodes>
        0 -1 2875661 1.9435501599218696e-06</internalNodes>
      <leafValues>
        -4.5745611190795898e-01 5.9791296720504761e-01</leafValues></_>
    <_>
      <internalNodes>
        0 -1 6025005 7.9670716077089310e-03</internalNodes>
      <leafValues>
        -2.8720086812973022e-01 8.4748440980911255e-01</leafValues></_>
    <_>
      <internalNodes>
        0 -1 5716831 -2.0134871825575829e-02</internalNodes>
      <leafValues>
        8.3319574594497681e-01 -3.7060469388961792e-01</leafValues></_></weakClassifiers></stage2>
</opencv_storage>
